digraph Tree {
node [shape=box] ;
0 [label="Production Cost <= 20750.0\nmse = 440302295.918\nsamples = 14\nvalue = 21464.286"] ;
1 [label="Production Cost <= 7000.0\nmse = 95352430.556\nsamples = 12\nvalue = 14041.667"] ;
0 -> 1 [labeldistance=2.5, labelangle=45, headlabel="True"] ;
2 [label="Production Cost <= 1000.0\nmse = 5868055.556\nsamples = 6\nvalue = 5083.333"] ;
1 -> 2 ;
3 [label="Production Cost <= 300.0\nmse = 1000000.0\nsamples = 2\nvalue = 2000.0"] ;
2 -> 3 ;
4 [label="mse = 0.0\nsamples = 1\nvalue = 1000.0"] ;
3 -> 4 ;
5 [label="mse = 0.0\nsamples = 1\nvalue = 3000.0"] ;
3 -> 5 ;
6 [label="Production Cost <= 2500.0\nmse = 1171875.0\nsamples = 4\nvalue = 6625.0"] ;
2 -> 6 ;
7 [label="mse = 0.0\nsamples = 1\nvalue = 5000.0"] ;
6 -> 7 ;
8 [label="Production Cost <= 4250.0\nmse = 388888.889\nsamples = 3\nvalue = 7166.667"] ;
6 -> 8 ;
9 [label="mse = 0.0\nsamples = 1\nvalue = 8000.0"] ;
8 -> 9 ;
10 [label="Production Cost <= 5500.0\nmse = 62500.0\nsamples = 2\nvalue = 6750.0"] ;
8 -> 10 ;
11 [label="mse = 0.0\nsamples = 1\nvalue = 6500.0"] ;
10 -> 11 ;
12 [label="mse = 0.0\nsamples = 1\nvalue = 7000.0"] ;
10 -> 12 ;
13 [label="Production Cost <= 13000.0\nmse = 24333333.333\nsamples = 6\nvalue = 23000.0"] ;
1 -> 13 ;
14 [label="Production Cost <= 8750.0\nmse = 6888888.889\nsamples = 3\nvalue = 18666.667"] ;
13 -> 14 ;
15 [label="mse = 0.0\nsamples = 1\nvalue = 15000.0"] ;
14 -> 15 ;
16 [label="Production Cost <= 10750.0\nmse = 250000.0\nsamples = 2\nvalue = 20500.0"] ;
14 -> 16 ;
17 [label="mse = 0.0\nsamples = 1\nvalue = 20000.0"] ;
16 -> 17 ;
18 [label="mse = 0.0\nsamples = 1\nvalue = 21000.0"] ;
16 -> 18 ;
19 [label="Production Cost <= 16000.0\nmse = 4222222.222\nsamples = 3\nvalue = 27333.333"] ;
13 -> 19 ;
20 [label="Production Cost <= 14750.0\nmse = 1000000.0\nsamples = 2\nvalue = 26000.0"] ;
19 -> 20 ;
21 [label="mse = 0.0\nsamples = 1\nvalue = 25000.0"] ;
20 -> 21 ;
22 [label="mse = 0.0\nsamples = 1\nvalue = 27000.0"] ;
20 -> 22 ;
23 [label="mse = 0.0\nsamples = 1\nvalue = 30000.0"] ;
19 -> 23 ;
24 [label="Production Cost <= 27500.0\nmse = 196000000.0\nsamples = 2\nvalue = 66000.0"] ;
0 -> 24 [labeldistance=2.5, labelangle=-45, headlabel="False"] ;
25 [label="mse = 0.0\nsamples = 1\nvalue = 52000.0"] ;
24 -> 25 ;
26 [label="mse = 0.0\nsamples = 1\nvalue = 80000.0"] ;
24 -> 26 ;
}